<?xml version="1.0"?>
<opencv_storage>
<stage0>
  <maxWeakCount>7</maxWeakCount>
  <stageThreshold>-1.1655902862548828e+00</stageThreshold>
  <weakClassifiers>
    <_>
      <internalNodes>
        0 -1 117767 -1.6206039488315582e-01</internalNodes>
      <leafValues>
        9.2796003818511963e-01 -6.4802932739257813e-01</leafValues></_>
    <_>
      <internalNodes>
        0 -1 138228 4.6460289508104324e-02</internalNodes>
      <leafValues>
        -5.0158023834228516e-01 7.8782606124877930e-01</leafValues></_>
    <_>
      <internalNodes>
        0 -1 38906 -1.9418138265609741e-01</internalNodes>
      <leafValues>
        5.1321977376937866e-01 -4.3138346076011658e-01</leafValues></_>
    <_>
      <internalNodes>
        0 -1 37047 3.5041659139096737e-03</internalNodes>
      <leafValues>
        -4.7026458382606506e-01 3.6921837925910950e-01</leafValues></_>
    <_>
      <internalNodes>
        0 -1 59050 -2.8025251813232899e-03</internalNodes>
      <leafValues>
        3.4996387362480164e-01 -4.2347678542137146e-01</leafValues></_>
    <_>
      <internalNodes>
        0 -1 42214 -4.0392652153968811e-02</internalNodes>
      <leafValues>
        7.4808466434478760e-01 -1.9670842587947845e-01</leafValues></_>
    <_>
      <internalNodes>
        0 -1 43654 1.7801817506551743e-02</internalNodes>
      <leafValues>
        -2.1219137310981750e-01 7.4332857131958008e-01</leafValues></_></weakClassifiers></stage0>
</opencv_storage>
